
public class DecisionTreeModel5 {
    public static double score(double[] input) {
        double var0;
        if ((input[0]) <= (-0.079981595)) {
if ((input[3]) <= (-0.021163529)) {
var0 = 246.0;
} else {
var0 = 302.0;
}
} else {
if ((input[3]) <= (0.009822307)) {
if ((input[4]) <= (-0.04766338)) {
if ((input[2]) <= (0.034750905)) {
if ((input[9]) <= (-0.08391984)) {
var0 = 182.0;
} else {
if ((input[3]) <= (-0.06075654)) {
var0 = 201.0;
} else {
var0 = 210.0;
}
}
} else {
if ((input[0]) <= (-0.056370094)) {
var0 = 187.0;
} else {
if ((input[0]) <= (-0.023677249)) {
var0 = 142.0;
} else {
var0 = 136.0;
}
}
}
} else {
if ((input[5]) <= (0.043309778)) {
if ((input[6]) <= (0.0007788079)) {
if ((input[0]) <= (0.009015599)) {
if ((input[4]) <= (-0.016704442)) {
if ((input[4]) <= (-0.027712064)) {
var0 = 184.0;
} else {
if ((input[8]) <= (-0.017948259)) {
var0 = 172.0;
} else {
var0 = 167.0;
}
}
} else {
var0 = 147.0;
}
} else {
if ((input[8]) <= (-0.0316591)) {
if ((input[8]) <= (-0.05066026)) {
if ((input[1]) <= (0.0030192416)) {
var0 = 144.0;
} else {
var0 = 145.0;
}
} else {
var0 = 140.0;
}
} else {
var0 = 110.0;
}
}
} else {
if ((input[3]) <= (-0.00050630455)) {
if ((input[6]) <= (0.008142084)) {
var0 = 55.0;
} else {
if ((input[5]) <= (-0.012430647)) {
if ((input[8]) <= (-0.04356451)) {
var0 = 95.0;
} else {
if ((input[6]) <= (0.03023191)) {
var0 = 85.0;
} else {
var0 = 90.0;
}
}
} else {
if ((input[2]) <= (0.043912306)) {
var0 = 103.0;
} else {
var0 = 129.0;
}
}
}
} else {
if ((input[0]) <= (-0.027309785)) {
var0 = 182.0;
} else {
if ((input[4]) <= (-0.022208253)) {
var0 = 121.0;
} else {
var0 = 141.0;
}
}
}
}
} else {
if ((input[8]) <= (-0.06359222)) {
var0 = 69.0;
} else {
if ((input[5]) <= (0.050512195)) {
var0 = 96.0;
} else {
var0 = 91.0;
}
}
}
}
} else {
if ((input[2]) <= (0.039062154)) {
if ((input[5]) <= (0.0134041)) {
if ((input[9]) <= (-0.007290858)) {
if ((input[5]) <= (-0.030436683)) {
var0 = 52.0;
} else {
var0 = 70.0;
}
} else {
if ((input[5]) <= (-0.06394357)) {
var0 = 170.0;
} else {
if ((input[5]) <= (-0.011178054)) {
var0 = 127.0;
} else {
if ((input[3]) <= (0.06662967)) {
var0 = 118.0;
} else {
var0 = 113.0;
}
}
}
}
} else {
if ((input[2]) <= (0.026128408)) {
if ((input[3]) <= (0.03564384)) {
var0 = 191.0;
} else {
var0 = 178.0;
}
} else {
var0 = 244.0;
}
}
} else {
if ((input[4]) <= (-0.020144325)) {
if ((input[9]) <= (-0.013504018)) {
if ((input[0]) <= (-0.0055145547)) {
var0 = 259.0;
} else {
var0 = 263.0;
}
} else {
if ((input[6]) <= (-0.012106923)) {
var0 = 288.0;
} else {
var0 = 293.0;
}
}
} else {
if ((input[5]) <= (0.016535584)) {
if ((input[5]) <= (-0.014935836)) {
var0 = 175.0;
} else {
if ((input[4]) <= (-0.005008842)) {
var0 = 131.0;
} else {
var0 = 109.0;
}
}
} else {
if ((input[4]) <= (0.008750686)) {
var0 = 257.0;
} else {
if ((input[4]) <= (0.030765932)) {
var0 = 200.0;
} else {
var0 = 198.0;
}
}
}
}
}
}
}

        return var0;
    }
}
