
public class DecisionTreeModel3 {
    public static double score(double[] input) {
        double var0;
        if ((input[4]) <= (0.06310082)) {
if ((input[1]) <= (0.0030192416)) {
if ((input[3]) <= (-0.034935012)) {
if ((input[0]) <= (-0.050921284)) {
if ((input[3]) <= (-0.09174238)) {
var0 = 55.0;
} else {
if ((input[3]) <= (-0.05042793)) {
if ((input[9]) <= (-0.02593034)) {
if ((input[4]) <= (-0.038719688)) {
if ((input[5]) <= (-0.067231625)) {
var0 = 142.0;
} else {
var0 = 150.0;
}
} else {
if ((input[0]) <= (-0.074532785)) {
var0 = 158.0;
} else {
var0 = 160.0;
}
}
} else {
var0 = 200.0;
}
} else {
if ((input[8]) <= (-0.049641147)) {
var0 = 134.0;
} else {
var0 = 69.0;
}
}
}
} else {
if ((input[4]) <= (0.0108146155)) {
if ((input[6]) <= (0.002619627)) {
if ((input[3]) <= (-0.03837788)) {
if ((input[9]) <= (-0.048711926)) {
var0 = 96.0;
} else {
if ((input[3]) <= (-0.071085155)) {
if ((input[6]) <= (-0.008425287)) {
var0 = 74.0;
} else {
var0 = 77.0;
}
} else {
if ((input[2]) <= (-0.040157035)) {
var0 = 68.0;
} else {
var0 = 64.0;
}
}
}
} else {
var0 = 97.0;
}
} else {
if ((input[2]) <= (-0.058479838)) {
if ((input[5]) <= (-0.031062981)) {
if ((input[4]) <= (-0.058671005)) {
var0 = 63.0;
} else {
var0 = 65.0;
}
} else {
var0 = 53.0;
}
} else {
if ((input[9]) <= (-0.030072447)) {
var0 = 31.0;
} else {
var0 = 42.0;
}
}
}
} else {
if ((input[0]) <= (-0.021860978)) {
var0 = 128.0;
} else {
var0 = 183.0;
}
}
}
} else {
if ((input[3]) <= (-0.029770706)) {
if ((input[5]) <= (-0.006167678)) {
if ((input[8]) <= (-0.038154572)) {
var0 = 181.0;
} else {
var0 = 190.0;
}
} else {
var0 = 214.0;
}
} else {
if ((input[3]) <= (0.10105838)) {
if ((input[6]) <= (0.009982903)) {
if ((input[3]) <= (0.032200966)) {
if ((input[9]) <= (-0.028001392)) {
if ((input[6]) <= (-0.0029028296)) {
var0 = 101.0;
} else {
var0 = 135.0;
}
} else {
if ((input[8]) <= (-0.03652919)) {
if ((input[6]) <= (-0.015788563)) {
var0 = 200.0;
} else {
if ((input[9]) <= (0.00927757)) {
var0 = 168.0;
} else {
var0 = 178.0;
}
}
} else {
if ((input[2]) <= (-0.037462503)) {
var0 = 127.0;
} else {
if ((input[8]) <= (-0.027321234)) {
var0 = 146.0;
} else {
var0 = 155.0;
}
}
}
}
} else {
var0 = 50.0;
}
} else {
if ((input[2]) <= (-0.013211733)) {
if ((input[9]) <= (-0.028001392)) {
var0 = 144.0;
} else {
if ((input[4]) <= (-0.00019300706)) {
var0 = 79.0;
} else {
if ((input[0]) <= (-0.056370094)) {
var0 = 113.0;
} else {
var0 = 104.0;
}
}
}
} else {
var0 = 25.0;
}
}
} else {
var0 = 216.0;
}
}
}
} else {
if ((input[9]) <= (-0.028001392)) {
if ((input[2]) <= (-0.046623908)) {
if ((input[4]) <= (-0.041471593)) {
if ((input[8]) <= (-0.06204477)) {
if ((input[6]) <= (-0.026833476)) {
var0 = 55.0;
} else {
if ((input[6]) <= (-0.0047436487)) {
if ((input[4]) <= (-0.07999827)) {
var0 = 70.0;
} else {
var0 = 72.0;
}
} else {
var0 = 83.0;
}
}
} else {
if ((input[8]) <= (-0.03964743)) {
var0 = 88.0;
} else {
if ((input[8]) <= (-0.015513105)) {
var0 = 101.0;
} else {
var0 = 104.0;
}
}
}
} else {
var0 = 138.0;
}
} else {
if ((input[8]) <= (-0.007999603)) {
if ((input[8]) <= (-0.099038385)) {
var0 = 78.0;
} else {
if ((input[5]) <= (-0.06096866)) {
var0 = 71.0;
} else {
if ((input[6]) <= (-0.021311019)) {
if ((input[0]) <= (-0.01822844)) {
var0 = 61.0;
} else {
var0 = 55.0;
}
} else {
if ((input[5]) <= (-0.0072636986)) {
if ((input[5]) <= (-0.035133913)) {
var0 = 43.0;
} else {
var0 = 47.0;
}
} else {
if ((input[0]) <= (0.010831868)) {
var0 = 54.0;
} else {
var0 = 53.0;
}
}
}
}
}
} else {
var0 = 92.0;
}
}
} else {
if ((input[6]) <= (0.002619627)) {
if ((input[0]) <= (0.07985009)) {
if ((input[2]) <= (-0.0115950145)) {
if ((input[5]) <= (-0.023077695)) {
if ((input[6]) <= (-0.006584468)) {
if ((input[6]) <= (-0.021311019)) {
if ((input[4]) <= (-0.07518244)) {
var0 = 129.0;
} else {
var0 = 124.0;
}
} else {
var0 = 160.0;
}
} else {
var0 = 71.0;
}
} else {
if ((input[2]) <= (-0.02183423)) {
if ((input[8]) <= (-0.022714075)) {
if ((input[0]) <= (0.059871137)) {
var0 = 71.0;
} else {
var0 = 89.0;
}
} else {
if ((input[6]) <= (-0.017629381)) {
var0 = 51.0;
} else {
var0 = 53.0;
}
}
} else {
if ((input[5]) <= (-0.015248984)) {
if ((input[4]) <= (-0.043535523)) {
var0 = 77.0;
} else {
var0 = 83.0;
}
} else {
if ((input[3]) <= (0.00752706)) {
if ((input[2]) <= (-0.015367357)) {
if ((input[3]) <= (-0.005670611)) {
if ((input[7]) <= (0.015858298)) {
var0 = 107.0;
} else {
var0 = 104.0;
}
} else {
var0 = 111.0;
}
} else {
var0 = 97.0;
}
} else {
var0 = 132.0;
}
}
}
}
} else {
if ((input[9]) <= (0.021703891)) {
if ((input[6]) <= (-0.010266106)) {
var0 = 60.0;
} else {
var0 = 44.0;
}
} else {
if ((input[4]) <= (-0.035967782)) {
var0 = 67.0;
} else {
var0 = 81.0;
}
}
}
} else {
var0 = 199.0;
}
} else {
if ((input[0]) <= (0.014464406)) {
if ((input[2]) <= (-0.029378913)) {
if ((input[8]) <= (-0.029116243)) {
if ((input[6]) <= (0.008142084)) {
var0 = 116.0;
} else {
var0 = 118.0;
}
} else {
var0 = 135.0;
}
} else {
if ((input[3]) <= (-0.003949175)) {
var0 = 88.0;
} else {
var0 = 49.0;
}
}
} else {
if ((input[7]) <= (-0.023810405)) {
if ((input[2]) <= (-0.021834228)) {
var0 = 200.0;
} else {
var0 = 219.0;
}
} else {
var0 = 177.0;
}
}
}
}
}
} else {
if ((input[1]) <= (0.0030192416)) {
var0 = 230.0;
} else {
var0 = 253.0;
}
}

        return var0;
    }
}
